{"learner":{"attributes":{"scikit_learn":"{\"_estimator_type\": \"regressor\"}"},"feature_names":["rcount","gender","dialysisrenalendstage","asthma","irondef","pneum","substancedependence","psychologicaldisordermajor","depress","psychother","fibrosisandother","malnutrition","hemo","hematocrit","neutrophils","sodium","glucose","bloodureanitro","creatinine","bmi","pulse","respiration","secondarydiagnosisnonicd9"],"feature_types":["int","int","int","int","int","int","int","int","int","int","int","int","int","float","float","float","float","float","float","float","int","float","int"],"gradient_booster":{"model":{"gbtree_model_param":{"num_parallel_tree":"1","num_trees":"10"},"iteration_indptr":[0,1,2,3,4,5,6,7,8,9,10],"tree_info":[0,0,0,0,0,0,0,0,0,0],"trees":[{"base_weights":[4.00005E0,2.9261856E0,6.512231E0,2.4863718E0,4.3236675E0,5.7219324E0,7.699227E0,6.9845384E-1,1.3903867E0,1.6632379E0,1.2434688E0,1.583062E0,1.8827295E0,2.1800685E0,2.488047E0],"categories":[],"categories_nodes":[],"categories_segments":[],"categories_sizes":[],"default_left":[0,0,0,0,0,0,0,0,0,0,0,0,0,0,0],"id":0,"left_children":[1,3,5,7,9,11,13,-1,-1,-1,-1,-1,-1,-1,-1],"loss_changes":[2.15803E5,3.4436875E4,2.2428688E4,1.4477156E4,2.9039531E3,3.5125938E3,2.3989375E3,0E0,0E0,0E0,0E0,0E0,0E0,0E0,0E0],"parents":[2147483647,0,0,1,1,2,2,3,3,4,4,5,5,6,6],"right_children":[2,4,6,8,10,12,14,-1,-1,-1,-1,-1,-1,-1,-1],"split_conditions":[2E0,1E0,4E0,1E0,9.7E0,3E0,5E0,6.9845384E-1,1.3903867E0,1.6632379E0,1.2434688E0,1.583062E0,1.8827295E0,2.1800685E0,2.488047E0],"split_indices":[0,7,0,12,13,0,0,0,0,0,0,0,0,0,0],"split_type":[0,0,0,0,0,0,0,0,0,0,0,0,0,0,0],"sum_hessian":[8E4,5.6045E4,2.3955E4,4.2631E4,1.3414E4,1.4384E4,9.571E3,3.9709E4,2.922E3,1.71E3,1.1704E4,7.981E3,6.403E3,5.548E3,4.023E3],"tree_param":{"num_deleted":"0","num_feature":"23","num_nodes":"15","size_leaf_vector":"1"}},{"base_weights":[2.800199E0,2.048419E0,4.558901E0,1.7405092E0,3.0267837E0,4.005594E0,5.3899465E0,4.7839502E-1,1.0641366E0,8.4091955E-1,1.1545581E0,1.125381E0,1.4449406E0,1.540519E0,1.8647014E0],"categories":[],"categories_nodes":[],"categories_segments":[],"categories_sizes":[],"default_left":[0,0,0,0,0,0,0,0,0,0,0,0,0,0,0],"id":1,"left_children":[1,3,5,7,9,11,13,-1,-1,-1,-1,-1,-1,-1,-1],"loss_changes":[1.0576456E5,1.6878484E4,1.09939375E4,1.1228336E4,2.4554219E3,2.9484844E3,1.982625E3,0E0,0E0,0E0,0E0,0E0,0E0,0E0,0E0],"parents":[2147483647,0,0,1,1,2,2,3,3,4,4,5,5,6,6],"right_children":[2,4,6,8,10,12,14,-1,-1,-1,-1,-1,-1,-1,-1],"split_conditions":[2E0,1E0,4E0,1E0,1E0,1E0,1E0,4.7839502E-1,1.0641366E0,8.4091955E-1,1.1545581E0,1.125381E0,1.4449406E0,1.540519E0,1.8647014E0],"split_indices":[0,7,0,4,0,7,7,0,0,0,0,0,0,0,0],"split_type":[0,0,0,0,0,0,0,0,0,0,0,0,0,0,0],"sum_hessian":[8E4,5.6045E4,2.3955E4,4.2631E4,1.3414E4,1.4384E4,9.571E3,3.9448E4,3.183E3,1.0547E4,2.867E3,1.0954E4,3.43E3,7.319E3,2.252E3],"tree_param":{"num_deleted":"0","num_feature":"23","num_nodes":"15","size_leaf_vector":"1"}},{"base_weights":[1.9602582E0,1.4339564E0,3.19148E0,1.3322645E0,3.466381E0,2.4923422E0,3.5406084E0,3.41198E-1,6.146294E-1,1.3292277E0,9.007693E-1,1.103665E0,6.968531E-1,1.4185344E0,1.0120424E0],"categories":[],"categories_nodes":[],"categories_segments":[],"categories_sizes":[],"default_left":[0,0,0,0,0,0,0,0,0,0,0,0,0,0,0],"id":2,"left_children":[1,3,5,7,9,11,13,-1,-1,-1,-1,-1,-1,-1,-1],"loss_changes":[5.1835625E4,1.1579031E4,5.8385625E3,7.4529844E3,1.1809746E3,1.5967734E3,3.1555469E3,0E0,0E0,0E0,0E0,0E0,0E0,0E0,0E0],"parents":[2147483647,0,0,1,1,2,2,3,3,4,4,5,5,6,6],"right_children":[2,4,6,8,10,12,14,-1,-1,-1,-1,-1,-1,-1,-1],"split_conditions":[2E0,2.9E1,3E0,1E0,9.7E0,9.7E0,9.7E0,3.41198E-1,6.146294E-1,1.3292277E0,9.007693E-1,1.103665E0,6.968531E-1,1.4185344E0,1.0120424E0],"split_indices":[0,17,0,0,13,13,13,0,0,0,0,0,0,0,0],"split_type":[0,0,0,0,0,0,0,0,0,0,0,0,0,0,0],"sum_hessian":[8E4,5.6045E4,2.3955E4,5.3376E4,2.669E3,7.981E3,1.5974E4,4.1962E4,1.1414E4,8.64E2,1.805E3,9.95E2,6.986E3,1.967E3,1.4007E4],"tree_param":{"num_deleted":"0","num_feature":"23","num_nodes":"15","size_leaf_vector":"1"}},{"base_weights":[1.3722734E0,1.0038264E0,2.2342126E0,2.0708191E0,8.572154E-1,2.144006E0,4.0612755E0,9.532058E-1,5.2265763E-1,1.9122805E-1,4.6879888E-1,5.8913183E-1,9.110424E-1,1.4729697E0,1.0943391E0],"categories":[],"categories_nodes":[],"categories_segments":[],"categories_sizes":[],"default_left":[0,0,0,0,0,0,0,0,0,0,0,0,0,0,0],"id":3,"left_children":[1,3,5,7,9,11,13,-1,-1,-1,-1,-1,-1,-1,-1],"loss_changes":[2.5404406E4,8.765656E3,3.9395547E3,2.4562852E3,7.639367E3,3.667836E3,3.771875E2,0E0,0E0,0E0,0E0,0E0,0E0,0E0,0E0],"parents":[2147483647,0,0,1,1,2,2,3,3,4,4,5,5,6,6],"right_children":[2,4,6,8,10,12,14,-1,-1,-1,-1,-1,-1,-1,-1],"split_conditions":[2E0,9.7E0,2.9E1,5.8333335E0,1E0,5E0,9.7E0,9.532058E-1,5.2265763E-1,1.9122805E-1,4.6879888E-1,5.8913183E-1,9.110424E-1,1.4729697E0,1.0943391E0],"split_indices":[0,13,17,21,7,0,13,0,0,0,0,0,0,0,0],"split_type":[0,0,0,0,0,0,0,0,0,0,0,0,0,0,0],"sum_hessian":[8E4,5.6045E4,2.3955E4,6.769E3,4.9276E4,2.283E4,1.125E3,1.548E3,5.221E3,3.7572E4,1.1704E4,1.8998E4,3.832E3,3.65E2,7.6E2],"tree_param":{"num_deleted":"0","num_feature":"23","num_nodes":"15","size_leaf_vector":"1"}},{"base_weights":[9.606689E-1,5.6340563E-1,1.4479283E0,3.321925E-1,1.1241785E0,2.5102506E0,1.3432757E0,7.851358E-2,4.5063296E-1,2.8898504E-1,5.971946E-1,9.5088655E-1,6.626746E-1,3.6536252E-1,7.3713374E-1],"categories":[],"categories_nodes":[],"categories_segments":[],"categories_sizes":[],"default_left":[0,0,0,0,0,0,0,0,0,0,0,0,0,0,0],"id":4,"left_children":[1,3,5,7,9,11,13,-1,-1,-1,-1,-1,-1,-1,-1],"loss_changes":[1.5485E4,5.713916E3,3.9911406E3,2.5728247E3,1.7917422E3,6.329863E2,4.5658047E3,0E0,0E0,0E0,0E0,0E0,0E0,0E0,0E0],"parents":[2147483647,0,0,1,1,2,2,3,3,4,4,5,5,6,6],"right_children":[2,4,6,8,10,12,14,-1,-1,-1,-1,-1,-1,-1,-1],"split_conditions":[1E0,1.3E1,5.8333335E0,7.15E0,1E0,9.7E0,7.133333E0,7.851358E-2,4.5063296E-1,2.8898504E-1,5.971946E-1,9.5088655E-1,6.626746E-1,3.6536252E-1,7.3713374E-1],"split_indices":[0,17,21,21,9,13,21,0,0,0,0,0,0,0,0],"split_type":[0,0,0,0,0,0,0,0,0,0,0,0,0,0,0],"sum_hessian":[8E4,4.4071E4,3.5929E4,3.1206E4,1.2865E4,3.22E3,3.2709E4,2.9434E4,1.772E3,1.0852E4,2.013E3,1.007E3,2.213E3,2.9401E4,3.308E3],"tree_param":{"num_deleted":"0","num_feature":"23","num_nodes":"15","size_leaf_vector":"1"}},{"base_weights":[6.7251986E-1,5.0412935E-1,1.3473783E0,4.214081E-1,1.4703236E0,1.1654001E0,1.81059E0,9.415553E-2,3.7046972E-1,6.1528677E-1,3.91229E-1,3.236659E-1,6.1698204E-1,4.9494976E-1,7.823777E-1],"categories":[],"categories_nodes":[],"categories_segments":[],"categories_sizes":[],"default_left":[0,0,0,0,0,0,0,0,0,0,0,0,0,0,0],"id":5,"left_children":[1,3,5,7,9,11,13,-1,-1,-1,-1,-1,-1,-1,-1],"loss_changes":[9.090613E3,5.1167275E3,1.3444941E3,5.160047E3,4.8463867E2,8.82292E2,5.7301074E2,0E0,0E0,0E0,0E0,0E0,0E0,0E0,0E0],"parents":[2147483647,0,0,1,1,2,2,3,3,4,4,5,5,6,6],"right_children":[2,4,6,8,10,12,14,-1,-1,-1,-1,-1,-1,-1,-1],"split_conditions":[3E0,1E0,1.3E1,1.44E1,5.8333335E0,1.65E1,2.9E1,9.415553E-2,3.7046972E-1,6.1528677E-1,3.91229E-1,3.236659E-1,6.1698204E-1,4.9494976E-1,7.823777E-1],"split_indices":[0,12,17,13,21,14,17,0,0,0,0,0,0,0,0],"split_type":[0,0,0,0,0,0,0,0,0,0,0,0,0,0,0],"sum_hessian":[8E4,6.4026E4,1.5974E4,5.8978E4,5.048E3,1.1471E4,4.503E3,5.2092E4,6.886E3,1.121E3,3.927E3,1.0458E4,1.013E3,3.75E3,7.53E2],"tree_param":{"num_deleted":"0","num_feature":"23","num_nodes":"15","size_leaf_vector":"1"}},{"base_weights":[4.7080997E-1,4.036457E-1,1.469467E0,1.6830222E-1,6.923617E-1,2.1575305E0,1.3647747E0,2.463702E-2,3.1588233E-1,1.854903E-1,4.3999895E-1,8.7529624E-1,5.657598E-1,3.776211E-1,5.913015E-1],"categories":[],"categories_nodes":[],"categories_segments":[],"categories_sizes":[],"default_left":[0,0,0,0,0,0,0,0,0,0,0,0,0,0,0],"id":6,"left_children":[1,3,5,7,9,11,13,-1,-1,-1,-1,-1,-1,-1,-1],"loss_changes":[5.3654004E3,5.093289E3,3.6018457E2,3.148432E3,1.9295098E3,1.3161255E2,2.7895068E2,0E0,0E0,0E0,0E0,0E0,0E0,0E0,0E0],"parents":[2147483647,0,0,1,1,2,2,3,3,4,4,5,5,6,6],"right_children":[2,4,6,8,10,12,14,-1,-1,-1,-1,-1,-1,-1,-1],"split_conditions":[1E0,1E0,1.0784602E2,7.15E0,1E0,9.7E0,1.7689517E2,2.463702E-2,3.1588233E-1,1.854903E-1,4.3999895E-1,8.7529624E-1,5.657598E-1,3.776211E-1,5.913015E-1],"split_indices":[6,0,16,21,4,13,16,0,0,0,0,0,0,0,0],"split_type":[0,0,0,0,0,0,0,0,0,0,0,0,0,0,0],"sum_hessian":[8E4,7.496E4,5.04E3,4.1298E4,3.3662E4,6.63E2,4.377E3,3.7633E4,3.665E3,3.0725E4,2.937E3,1.72E2,4.91E2,3.728E3,6.49E2],"tree_param":{"num_deleted":"0","num_feature":"23","num_nodes":"15","size_leaf_vector":"1"}},{"base_weights":[3.2960922E-1,1.1205057E0,2.5236413E-1,1.9991713E0,9.9365205E-1,1.7448615E-1,9.563962E-1,9.4380146E-1,5.5195755E-1,2.507475E-1,5.8073556E-1,2.880239E-2,2.2557189E-1,5.6049967E-1,2.4830677E-1],"categories":[],"categories_nodes":[],"categories_segments":[],"categories_sizes":[],"default_left":[0,0,0,0,0,0,0,0,0,0,0,0,0,0,0],"id":7,"left_children":[1,3,5,7,9,11,13,-1,-1,-1,-1,-1,-1,-1,-1],"loss_changes":[4.887208E3,7.913994E2,3.995961E3,1.5809814E2,9.2355664E2,2.9737627E3,8.5046094E2,0E0,0E0,0E0,0E0,0E0,0E0,0E0,0E0],"parents":[2147483647,0,0,1,1,2,2,3,3,4,4,5,5,6,6],"right_children":[2,4,6,8,10,12,14,-1,-1,-1,-1,-1,-1,-1,-1],"split_conditions":[5.8333335E0,1.3446967E2,7.15E0,6E1,1.4140028E2,4E0,1.3441266E2,9.4380146E-1,5.5195755E-1,2.507475E-1,5.8073556E-1,2.880239E-2,2.2557189E-1,5.6049967E-1,2.4830677E-1],"split_indices":[21,15,21,20,15,0,15,0,0,0,0,0,0,0,0],"split_type":[0,0,0,0,0,0,0,0,0,0,0,0,0,0,0],"sum_hessian":[8E4,7.117E3,7.2883E4,8.96E2,6.221E3,6.5625E4,7.258E3,1.07E2,7.89E2,5.33E3,8.91E2,5.7774E4,7.851E3,8.96E2,6.362E3],"tree_param":{"num_deleted":"0","num_feature":"23","num_nodes":"15","size_leaf_vector":"1"}},{"base_weights":[2.307688E-1,1.4725746E-1,8.1514144E-1,8.040601E-1,3.762185E-2,6.920355E-1,1.6483189E0,5.0217247E-1,2.0535943E-1,-9.393036E-4,3.0489618E-1,4.6140605E-1,1.6909483E-1,8.0481833E-1,4.4461125E-1],"categories":[],"categories_nodes":[],"categories_segments":[],"categories_sizes":[],"default_left":[0,0,0,0,0,0,0,0,0,0,0,0,0,0,0],"id":8,"left_children":[1,3,5,7,9,11,13,-1,-1,-1,-1,-1,-1,-1,-1],"loss_changes":[3.9040679E3,5.040525E3,1.0248574E3,1.0399243E3,2.3925708E3,9.459092E2,2.1739233E2,0E0,0E0,0E0,0E0,0E0,0E0,0E0,0E0],"parents":[2147483647,0,0,1,1,2,2,3,3,4,4,5,5,6,6],"right_children":[2,4,6,8,10,12,14,-1,-1,-1,-1,-1,-1,-1,-1],"split_conditions":[3.211218E1,2.7508316E1,8.7E1,9.7E0,1E0,6E1,9.7E0,5.0217247E-1,2.0535943E-1,-9.393036E-4,3.0489618E-1,4.6140605E-1,1.6909483E-1,8.0481833E-1,4.4461125E-1],"split_indices":[19,19,20,13,5,20,13,0,0,0,0,0,0,0,0],"split_type":[0,0,0,0,0,0,0,0,0,0,0,0,0,0,0],"sum_hessian":[8E4,6.9998E4,1.0002E4,1.0012E4,5.9986E4,8.716E3,1.286E3,1.208E3,8.804E3,5.7589E4,2.397E3,1.147E3,7.569E3,1.76E2,1.11E3],"tree_param":{"num_deleted":"0","num_feature":"23","num_nodes":"15","size_leaf_vector":"1"}},{"base_weights":[1.6157432E-1,7.3462176E-1,7.971979E-2,1.5052866E0,6.1958414E-1,-2.7318723E-2,7.212371E-1,8.780965E-1,4.1525114E-1,1.493656E-1,4.4810262E-1,-2.1412525E-2,2.4246652E-1,4.633753E-1,1.8257877E-1],"categories":[],"categories_nodes":[],"categories_segments":[],"categories_sizes":[],"default_left":[0,0,0,0,0,0,0,0,0,0,0,0,0,0,0],"id":9,"left_children":[1,3,5,7,9,11,13,-1,-1,-1,-1,-1,-1,-1,-1],"loss_changes":[3.7525112E3,8.855327E2,4.80692E3,2.1945264E2,9.249392E2,2.208489E3,9.274155E2,0E0,0E0,0E0,0E0,0E0,0E0,0E0,0E0],"parents":[2147483647,0,0,1,1,2,2,3,3,4,4,5,5,6,6],"right_children":[2,4,6,8,10,12,14,-1,-1,-1,-1,-1,-1,-1,-1],"split_conditions":[8.673853E-1,9.8E0,1.3294412E0,4.1E0,1.44E1,1E0,9.7E0,8.780965E-1,4.1525114E-1,1.493656E-1,4.4810262E-1,-2.1412525E-2,2.4246652E-1,4.633753E-1,1.8257877E-1],"split_indices":[18,13,18,14,13,11,13,0,0,0,0,0,0,0,0],"split_type":[0,0,0,0,0,0,0,0,0,0,0,0,0,0,0],"sum_hessian":[8E4,9.998E3,7.0002E4,1.297E3,8.701E3,5.9993E4,1.0009E4,1E2,1.197E3,7.639E3,1.062E3,5.6989E4,3.004E3,1.203E3,8.806E3],"tree_param":{"num_deleted":"0","num_feature":"23","num_nodes":"15","size_leaf_vector":"1"}}]},"name":"gbtree"},"learner_model_param":{"base_score":"0E0","boost_from_average":"0","num_class":"0","num_feature":"23","num_target":"1"},"objective":{"name":"reg:squarederror","reg_loss_param":{"scale_pos_weight":"1"}}},"version":[2,0,3]}